{
	"name": "perceptron",
	"bias": true,
	"hidden": [
		5,
		3
	],
	"activation": 4,
	"loss": 0,
	"limit": 0.001,
	"rate": 0.3,
	"weights": [
		[
			[
				0.6483375581258354,
				0.37829911416238543,
				1.0965593060101504,
				-0.9695716492267594
			],
			[
				1.5997363681071117,
				1.774325197466975,
				-0.5841254004742591,
				-0.8124575397168583
			],
			[
				1.3069323806015043,
				1.9345235195023702,
				-0.3219217624096705,
				-0.9835168466456232
			],
			[
				0.865453665130002,
				1.149392469203851,
				-0.6144493361291941,
				-0.8751975286779293
			],
			[
				-0.7338708442892761,
				-0.7873993512903825,
				-1.463633991925457,
				0.35212772999933234
			]
		],
		[
			[
				0.32139067963723533,
				1.6555540430310605,
				1.5555831757155552,
				0.8011284941951831,
				0.007288504076448235,
				-0.6505848472701422
			],
			[
				-0.28680599077019286,
				0.18519230489637925,
				0.7454734901477357,
				0.6838481599886959,
				-0.4977985591851928,
				0.037100648536199356
			],
			[
				-0.4764029827798117,
				-1.3132523447737472,
				-1.6465524575785255,
				-1.1380717254420192,
				0.2446269269871559,
				-0.15722456081708866
			]
		],
		[
			[
				-1.5544950348988127,
				1.0949008375668272,
				-0.8052693739027683,
				-0.06179802092848691
			],
			[
				0.2515087516819104,
				1.212404529651151,
				1.3630331880330637,
				0.5173285141966196
			]
		]
	]
}