{
	"architecture": {
		"perceptron": {
			"hiddenLayer": [
				5,
				3
			],
			"bias": true,
			"activationMode": 3,
			"lossMode": 0,
			"lossLevel": 0.01,
			"rate": 0.3,
			"weight": [
				[
					[
						-0.08268112,
						0.95332664,
						-0.21873866,
						0.13345437
					],
					[
						-0.68764114,
						1.9473982,
						-1.2604108,
						0.7426126
					],
					[
						2.070951,
						1.5207319,
						0.70109594,
						-1.0614488
					],
					[
						-5.78106,
						-1.0860714,
						-2.669719,
						4.201402
					],
					[
						-3.7675736,
						-5.0026774,
						0.84598416,
						3.0980058
					]
				],
				[
					[
						-1.1290755,
						-2.00603,
						-2.7107377,
						2.2066052,
						6.5421567,
						-2.7546084
					],
					[
						0.4856593,
						-0.5471191,
						2.7153614,
						-5.669612,
						-3.2179995,
						0.39486203
					],
					[
						-0.69536275,
						-1.9435675,
						0.9950143,
						-3.938306,
						0.6213824,
						0.14542934
					]
				],
				[
					[
						-4.8059306,
						-5.5663385,
						-1.9335923,
						2.7793925
					],
					[
						3.953991,
						1.5180897,
						-2.348625,
						-1.4061652
					]
				]
			]
		}
	},
	"isTrain": true
}