{
	"architecture": {
		"perceptron": {
			"hiddenLayer": [
				5,
				3
			],
			"bias": true,
			"activationMode": 3,
			"lossMode": 0,
			"lossLevel": 0.01,
			"rate": 0.3,
			"weight": [
				[
					[
						-3.5178084,
						0.7243789,
						-7.2893233,
						-0.71583843
					],
					[
						-4.1299834,
						-0.56390476,
						-1.6160766,
						2.5412147
					],
					[
						-2.378356,
						0.6637006,
						-4.4031506,
						-1.4799162
					],
					[
						-5.8155823,
						-3.0433645,
						-1.3524071,
						5.5414414
					],
					[
						-6.1838202,
						-5.6958866,
						0.3273412,
						2.7063951
					]
				],
				[
					[
						-3.1996877,
						3.0263753,
						-1.7289741,
						-2.059388,
						6.7122107,
						-1.0172337
					],
					[
						-2.7602153,
						-1.8672479,
						-1.8092219,
						-4.350981,
						0.67838454,
						2.4794524
					],
					[
						-3.06892,
						-0.36525908,
						-1.3232079,
						-3.3423145,
						5.0852623,
						-3.4828596
					]
				],
				[
					[
						0.5970926,
						2.8683746,
						-4.65294,
						11.633794
					],
					[
						5.653681,
						3.1265275,
						0.5449436,
						-3.016195
					]
				]
			]
		}
	},
	"isTrain": true
}