{
	"architecture": {
		"perceptron": {
			"hiddenLayer": [
				5,
				3
			],
			"bias": true,
			"activationMode": 3,
			"lossMode": 0,
			"lossLevel": 0.01,
			"rate": 0.3,
			"weight": [
				[
					[
						-8.2395315,
						-0.7934919,
						-2.8566701,
						5.2058806
					],
					[
						-0.4186211,
						5.595375,
						-3.481332,
						1.339449
					],
					[
						-2.569499,
						-0.612426,
						-0.67653227,
						1.3674859
					],
					[
						1.302585,
						-2.0597968,
						1.3873286,
						-0.64785314
					],
					[
						3.5262663,
						5.023535,
						-0.44911963,
						-4.023631
					]
				],
				[
					[
						-7.3942566,
						-1.7811445,
						-2.8694398,
						0.7903678,
						5.5339212,
						0.10813941
					],
					[
						-5.487356,
						-4.5932174,
						-1.0975144,
						2.9560587,
						0.02562967,
						0.057168793
					],
					[
						3.8188837,
						-3.6081407,
						1.0302202,
						0.8974825,
						-6.777749,
						0.08610479
					]
				],
				[
					[
						-6.666674,
						-0.7537658,
						-5.374393,
						3.2368557
					],
					[
						1.7445617,
						-3.2701511,
						4.547156,
						-1.8770355
					]
				]
			]
		}
	},
	"isTrain": true
}